=== Run information ===

Scheme:weka.classifiers.trees.REPTree -M 2 -V 0.001 -N 3 -S 1 -L -1
Relation:     multicriteria
Instances:    223
Attributes:   13
              user
              project
              criterium1
              criterium2
              criterium3
              criterium4
              criterium5
              criterium6
              criterium7
              criterium8
              criterium9
              criterium10
              overall
Test mode:10-fold cross-validation

=== Classifier model (full training set) ===


REPTree
============

criterium2 < 4.5
|   criterium3 < 3.5 : 2.93 (10/1.09) [5/0.41]
|   criterium3 >= 3.5
|   |   criterium1 < 2.5 : 3.4 (7/1.84) [3/1.4]
|   |   criterium1 >= 2.5
|   |   |   criterium7 < 3.5 : 3.29 (5/0.16) [2/0.34]
|   |   |   criterium7 >= 3.5
|   |   |   |   criterium7 < 4.5 : 3.92 (15/0.06) [9/0.32]
|   |   |   |   criterium7 >= 4.5 : 4.26 (45/0.18) [25/0.2]
criterium2 >= 4.5
|   criterium1 < 3.5 : 4.25 (12/0.31) [4/0.36]
|   criterium1 >= 3.5
|   |   criterium7 < 4.5 : 4.2 (10/0.16) [5/0.56]
|   |   criterium7 >= 4.5
|   |   |   criterium3 < 4.5 : 3.89 (7/0.24) [2/9.9]
|   |   |   criterium3 >= 4.5
|   |   |   |   criterium1 < 4.5 : 4.72 (12/0.19) [6/0.23]
|   |   |   |   criterium1 >= 4.5 : 4.97 (25/0) [14/0.07]

Size of the tree : 19

Time taken to build model: 0.05 seconds

=== Cross-validation ===
=== Summary ===

Correlation coefficient                  0.4774
Mean absolute error                      0.4713
Root mean squared error                  0.7304
Relative absolute error                 78.734  %
Root relative squared error             89.3252 %
Total Number of Instances              223     

